{"n_classes":7,"layers":[{"weights":[[-0.0796699970960617,0.33917000889778137,0.1031700000166893,0.09109000116586685,-0.3886899948120117,-0.09848000109195709,-0.24841000139713287,0.24909000098705292,-0.1990099996328354,-0.007360000163316727,-0.3853600025177002,0.10339999943971634,0.3115200102329254,-0.23243999481201172,-0.08013000339269638,-0.12681999802589417,-0.1369200050830841,0.08500999957323074,-0.08876000344753265,-0.14409999549388885,-0.0065100002102553844,-0.19856999814510345,-0.19107000529766083,-0.15126000344753265,-0.0035099999513477087,0.031780000776052475,-0.28439000248908997,0.11364000290632248,0.12445999681949615,-0.38982999324798584,0.0372299998998642,-0.1907300055027008,-0.5379999876022339,0.17340999841690063,0.17148999869823456,0.18092000484466553,-0.1696300059556961,-0.0032399999909102917,0.043779999017715454,-0.007790000177919865,-0.2992599904537201,0.031599998474121094,-0.5083799958229065,0.22899000346660614,-0.31400999426841736,0.08044999837875366,-0.07625000178813934,0.04190000146627426,-0.07814999669790268,-0.18369999527931213,0.30094000697135925,0.11757999658584595,0.08090999722480774,0.12055999785661697,-0.054010000079870224,0.10903000086545944,-0.33476001024246216,-0.0946199968457222,-0.3383199870586395,-0.17701999843120575,-0.11079999804496765,-0.26304998993873596,0.21407000720500946,-0.02274000085890293],[-0.05327000096440315,0.050439998507499695,-0.05465000122785568,0.383650004863739,-0.15334999561309814,0.1507900059223175,0.04642000049352646,-0.06224999949336052,-0.2961300015449524,-0.04506000131368637,0.1428699940443039,0.06021999940276146,0.14899000525474548,-0.3032799959182739,-0.16584999859333038,-0.19842000305652618,0.22306999564170837,-0.043150000274181366,-0.1785299926996231,-0.22408999502658844,-0.015720000490546227,-0.0926399976015091,0.1295199990272522,0.06817000359296799,0.060819998383522034,0.0987899973988533,-0.15442000329494476,0.05998999997973442,0.31894999742507935,0.058959998190402985,0.1047699972987175,-0.0044999998062849045,-0.06027999892830849,0.03646999970078468,-0.4615800082683563,-0.28141000866889954,-0.1463399976491928,0.06176000088453293,0.014940000139176846,-0.0020699999295175076,0.14749999344348907,-0.09393999725580215,-0.06102000176906586,0.182109996676445,-0.08597999811172485,-0.0879800021648407,-0.047850001603364944,0.003000000026077032,0.22800999879837036,0.0063599999994039536,0.04665999859571457,0.10592000186443329,0.1432500034570694,-0.03863999992609024,0.33002999424934387,0.08214999735355377,0.13266000151634216,0.23972000181674957,-0.18799999356269836,-0.22297999262809753,-0.06739000231027603,-0.051180001348257065,0.19589999318122864,0.20548999309539795],[-0.683899998664856,0.05283999815583229,-0.20733000338077545,-0.10488999634981155,-0.664359986782074,0.15775999426841736,0.22068999707698822,-0.36298999190330505,0.11089999973773956,0.376800000667572,-0.013240000233054161,0.5435699820518494,0.2669700086116791,-0.20258000493049622,-0.13613000512123108,0.09809000045061111,0.07152999937534332,-0.588450014591217,0.23653000593185425,0.07209999859333038,-0.8314899802207947,-0.11025000363588333,0.5824900269508362,-0.6428300142288208,-0.5575699806213379,-0.07325000315904617,0.5712800025939941,-0.48267000913619995,0.059220001101493835,0.18188999593257904,-0.5797600150108337,0.252810001373291,-0.13642999529838562,0.13344000279903412,0.08573000133037567,0.14326000213623047,-0.6242799758911133,0.5871400237083435,0.030719999223947525,-1.0740599632263184,-0.4741699993610382,0.01228999998420477,0.06545999646186829,-0.4555099904537201,0.06571000069379807,0.0037899999879300594,0.26401999592781067,-0.006020000204443932,0.36612001061439514,-0.12053000181913376,0.3518800139427185,-0.5153099894523621,-0.15297000110149384,-0.6808099746704102,0.3809199929237366,0.392300009727478,-0.3700999915599823,0.212349995970726,0.3033899962902069,-0.037370000034570694,-0.025270000100135803,-0.2879999876022339,-0.01413000002503395,0.3759399950504303],[0.13285000622272491,0.35475999116897583,-0.19719000160694122,0.07067999988794327,-0.1163100004196167,0.28341999650001526,0.46011999249458313,0.20732000470161438,-0.07486999779939651,-0.6177600026130676,-0.5243499875068665,0.2531900107860565,0.4505400061607361,-0.37575000524520874,-0.3754799962043762,-0.02005000039935112,-0.8386600017547607,-0.5100100040435791,-0.22888000309467316,0.22247999906539917,-0.013159999623894691,0.023930000141263008,0.09511999785900116,-0.168380007147789,-0.14090000092983246,0.22498999536037445,-0.021139999851584435,0.19134999811649323,0.2950200140476227,-0.047240000218153,-0.5539399981498718,-0.1907700002193451,0.08839999884366989,-0.3976399898529053,0.5826900005340576,0.031980000436306,0.056790001690387726,-0.02865999937057495,0.6012899875640869,0.011869999580085278,-0.02280000038444996,-0.24507999420166016,-0.2547700107097626,0.2543100118637085,0.10791999846696854,-0.8110399842262268,-0.01193000003695488,-0.7298399806022644,0.20463000237941742,0.5934399962425232,0.34856000542640686,-0.1612900048494339,-0.45708000659942627,0.2160000056028366,-0.21603000164031982,0.2057799994945526,0.16835999488830566,0.20767000317573547,-0.4654900133609772,0.09606000036001205,0.24075999855995178,-0.14303000271320343,-0.5010600090026855,0.10181000083684921],[0.3994399905204773,0.16617999970912933,-0.14464999735355377,-0.13583999872207642,0.10620000213384628,0.49167999625205994,-0.40876999497413635,0.18873000144958496,0.42021000385284424,0.1710200011730194,0.07523000240325928,0.25005999207496643,-0.06272000074386597,-0.19343000650405884,0.23140999674797058,0.40637001395225525,0.10730999708175659,0.2792600095272064,-0.16767999529838562,-0.15544000267982483,0.17260000109672546,0.1043500006198883,-0.025110000744462013,0.131740003824234,0.3891200125217438,0.0024500000290572643,-0.10869000107049942,-0.0772399976849556,0.15042999386787415,-0.5729699730873108,-0.05688999965786934,0.11866000294685364,-0.269459992647171,0.1634799987077713,-0.13824999332427979,-0.3823699951171875,-0.01744000054895878,0.03596999868750572,-0.024089999496936798,0.06201000139117241,0.40411001443862915,-0.2987000048160553,-0.09457000344991684,-0.2352599948644638,-0.20367999374866486,0.054680000990629196,0.06978999823331833,-0.028230000287294388,0.26688000559806824,0.03663000091910362,0.10035999864339828,-0.327890008687973,-0.12424000352621078,-0.19417999684810638,-0.2746500074863434,-0.41451001167297363,-0.4953399896621704,0.4050000011920929,0.4215799868106842,0.17712999880313873,-0.18679000437259674,-0.44729000329971313,-0.22856000065803528,-0.1791599988937378],[-0.21865999698638916,0.34696000814437866,0.23250000178813934,-0.0264699999243021,0.047029998153448105,0.355569988489151,-0.0013800000306218863,0.22269000113010406,-0.2790200114250183,-0.4225899875164032,-0.06998000293970108,0.16294999420642853,-0.2865999937057495,-0.3353999853134155,-0.3017300069332123,-0.45816001296043396,0.16904999315738678,0.3350600004196167,-0.24453000724315643,-0.4048599898815155,-0.24782000482082367,-0.19808000326156616,-0.5402600169181824,-0.3037000000476837,-0.2679400146007538,-0.10256999731063843,-0.14890000224113464,-0.274509996175766,-0.17327000200748444,-0.10136000066995621,0.192330002784729,0.4240500032901764,0.28780999779701233,-0.4526599943637848,-0.14681999385356903,0.24347999691963196,-0.3615399897098541,-0.1434600055217743,0.192330002784729,0.02386000007390976,-0.16771000623703003,0.27908000349998474,-0.20901000499725342,0.16548000276088715,0.4772000014781952,0.066430002450943,0.5682100057601929,0.45559000968933105,-0.07010000199079514,-0.10503999888896942,-0.39271000027656555,-0.45583999156951904,-0.44846001267433167,0.16765999794006348,-0.43230000138282776,-0.3306899964809418,-0.06689999997615814,-0.508400022983551,0.16832999885082245,-0.02993999980390072,-0.501990020275116,-0.0627100020647049,0.14293000102043152,0.33987998962402344],[0.04743000119924545,-0.15045000612735748,-0.2223999947309494,-0.35082998871803284,0.08692999929189682,0.0798799991607666,0.26996999979019165,-0.198730006814003,0.050200000405311584,0.09690999984741211,-0.10728000104427338,0.17464999854564667,0.20362000167369843,-0.09014999866485596,0.09595999866724014,0.046709999442100525,-0.1775600016117096,0.09407000243663788,0.0444599986076355,0.16447000205516815,-0.0163199994713068,0.20979000627994537,-0.11821000277996063,-0.2279299944639206,0.10583999752998352,-0.2322700023651123,-0.08968999981880188,0.32076001167297363,0.2573400139808655,-0.07212000340223312,0.06202999874949455,0.05934000015258789,-0.08583000302314758,-0.031220000237226486,0.10326000303030014,0.14589999616146088,0.14977000653743744,0.2553099989891052,-0.03451000154018402,-0.007249999791383743,-0.1810699999332428,-0.025049999356269836,0.07343000173568726,0.15362000465393066,-0.17114000022411346,-0.0471000000834465,-0.36858001351356506,0.018629999831318855,-0.02809000015258789,-0.04391000047326088,-0.18649999797344208,0.023560000583529472,-0.24301999807357788,0.1242000013589859,0.12518000602722168,-0.238429993391037,-0.16418999433517456,0.21268999576568604,-0.02418999932706356,-0.04642000049352646,0.0342399999499321,0.1701200008392334,0.39120998978614807,0.0004299999854993075]],"biases":[0.12626999616622925,-0.13088999688625336,0.004730000160634518,-0.023910000920295715,0.09042000025510788,0.4856399893760681,-0.1047699972987175,0.14587000012397766,-0.1564600020647049,0.23899999260902405,-0.2718200087547302,-0.1587499976158142,-0.13335999846458435,0.25262999534606934,0.2134000062942505,0.20595000684261322,0.30730000138282776,0.09251999855041504,0.05570000037550926,0.30066001415252686,0.015650000423192978,0.48475000262260437,0.016009999439120293,0.38499000668525696,-0.04416999965906143,0.3219600021839142,0.2402999997138977,0.3201499879360199,-0.13561999797821045,0.21568000316619873,0.2885900139808655,0.19292999804019928,0.21167999505996704,0.35273998975753784,0.005880000069737434,0.27783000469207764,0.21750999987125397,0.27077001333236694,-0.4474000036716461,0.048170000314712524,0.37516000866889954,0.3968299925327301,0.06734000146389008,0.17089000344276428,-0.0017600000137463212,-0.16514000296592712,0.005059999879449606,-0.05232999846339226,0.04513999819755554,-0.4706200063228607,0.47099998593330383,0.46314001083374023,0.4357199966907501,0.18308000266551971,0.08218999952077866,0.3368600010871887,0.3369100093841553,-0.00406000018119812,0.4529600143432617,0.15929999947547913,0.46838998794555664,0.3250400125980377,0.2032800018787384,0.1552100032567978],"activation":"relu"},{"weights":[[0.23940999805927277,0.4047600030899048,-0.5692800283432007,-0.5052199959754944,-0.28929999470710754,-0.10752999782562256,0.37567999958992004,-0.33882999420166016,-0.01662999950349331,-0.2406100034713745,0.4773600101470947,0.055560000240802765,0.37599998712539673,0.0081599997356534,0.11139000207185745,-0.06401000171899796,-0.15703999996185303,0.22743000090122223,0.12964999675750732,0.38499000668525696,0.35747000575065613,0.12354999780654907,0.37657999992370605,0.4321100115776062,0.2842099964618683,-0.0327799990773201,-0.35712000727653503,-0.04806999862194061,0.27178001403808594,0.05232999846339226,-0.1018500030040741,0.20009000599384308],[-0.0579800009727478,0.10232000052928925,-0.05693000182509422,0.28832998871803284,0.03892999887466431,0.06442999839782715,0.1629599928855896,0.5486800074577332,0.12766000628471375,0.3140999972820282,0.19787000119686127,-0.24919000267982483,-0.19304999709129333,-0.18970000743865967,0.009069999679923058,0.13636000454425812,0.3861899971961975,-0.16829000413417816,-0.1645900011062622,-0.27974000573158264,-0.31591999530792236,-0.09628999978303909,-0.17038999497890472,-0.12779000401496887,0.381850004196167,-0.11569000035524368,-0.3139500021934509,0.21748000383377075,-0.31007999181747437,-0.029740000143647194,0.29109999537467957,0.05891000106930733],[-0.1853100061416626,0.3019300103187561,-0.13761000335216522,0.1849299967288971,-0.09345000237226486,0.333950012922287,0.13026000559329987,0.0434500016272068,0.2204899936914444,-0.0049299998208880424,-0.08579999953508377,-0.23280000686645508,-0.0086899995803833,-0.14167000353336334,-0.14576999843120575,0.1454000025987625,-0.25220000743865967,-0.07761000096797943,0.15855999290943146,0.07118000090122223,0.12807999551296234,-0.06285999715328217,-0.09504999965429306,-0.24532000720500946,0.08958999812602997,-0.45023998618125916,0.0071299998089671135,-0.07225999981164932,-0.2808600068092346,-0.031610000878572464,0.0806099995970726,-0.05823000147938728],[0.020169999450445175,0.197720006108284,-0.12456999719142914,0.20287999510765076,0.10346999764442444,-0.06846000254154205,0.3391599953174591,0.4266299903392792,-0.2110700011253357,-0.0008299999753944576,0.10509999841451645,0.14922000467777252,-0.2241699993610382,0.020409999415278435,0.03101000003516674,0.1557299941778183,0.06652999669313431,-0.001829999964684248,-0.005429999902844429,0.1515199989080429,-0.09910999983549118,-0.04027000069618225,0.22753000259399414,0.18603000044822693,0.004619999788701534,0.04645000025629997,-0.29385000467300415,0.015010000206530094,0.07632999867200851,-0.033479999750852585,-0.3322800099849701,-0.11388000100851059],[-0.023240000009536743,0.11885999888181686,-0.3725000023841858,0.08370000123977661,-0.4343000054359436,0.13273000717163086,0.3446199893951416,0.005609999876469374,0.31668999791145325,0.16695000231266022,-0.10558000206947327,-0.3749299943447113,-0.04349000006914139,-0.2002200037240982,-0.2021999955177307,0.1192300021648407,-0.2928999960422516,0.10340999811887741,0.054349999874830246,0.22419999539852142,-0.14709000289440155,0.4927099943161011,0.16999000310897827,-0.05274999886751175,0.05349000170826912,-0.21964000165462494,-0.13564999401569366,-0.09076999872922897,-0.3622100055217743,-0.09849999845027924,0.028130000457167625,0.07944999635219574],[-0.18016000092029572,0.13684000074863434,-0.20892000198364258,0.21143999695777893,-0.19121000170707703,-0.4526199996471405,0.3528900146484375,0.31279000639915466,0.1477299928665161,-0.019300000742077827,-0.068340003490448,0.01145000010728836,0.41207000613212585,0.0757099986076355,0.2058899998664856,0.1040399968624115,0.26728999614715576,0.01054999977350235,-0.08824999630451202,0.04839999973773956,-0.04868999868631363,-0.11546999961137772,-0.1537099927663803,0.25885000824928284,-0.09139999747276306,-0.028880000114440918,-0.33906999230384827,0.12257999926805496,-0.10384000092744827,-0.28867000341415405,0.16479000449180603,-0.1595499962568283],[-0.21661999821662903,0.2787899971008301,0.04050999879837036,0.024140000343322754,-0.0025500000920146704,0.28426000475883484,0.23199999332427979,0.21216000616550446,0.023809999227523804,0.1662999987602234,-0.12066999822854996,0.1853799968957901,0.06505999714136124,0.3408699929714203,-0.26982998847961426,0.22608999907970428,0.28898000717163086,-0.16338999569416046,-0.0,-0.02201000042259693,0.031279999762773514,0.1500599980354309,-0.21924999356269836,-0.005539999809116125,0.023189999163150787,0.13496999442577362,-0.40999001264572144,0.26177000999450684,0.13165999948978424,-0.04340999945998192,0.1899999976158142,0.06439000368118286],[-0.032249998301267624,0.28192999958992004,-0.2155900001525879,-0.038270000368356705,-0.02517000027000904,-0.28227999806404114,0.32853999733924866,0.2727000117301941,-0.029440000653266907,0.3064900040626526,-0.06764999777078629,-0.19554999470710754,0.23152999579906464,0.15936000645160675,-0.30889999866485596,0.28762999176979065,0.21597999334335327,-0.150859996676445,-0.14764000475406647,0.15752999484539032,0.059130001813173294,0.16178999841213226,0.2505500018596649,0.18190999329090118,0.09940999746322632,0.020989999175071716,0.001820000004954636,0.22227999567985535,-0.3656499981880188,0.06682000309228897,0.0868000015616417,0.18514999747276306],[-0.12860000133514404,0.13700999319553375,-0.3454599976539612,0.19526000320911407,0.009750000201165676,-0.0580499991774559,0.16558000445365906,-0.07626000046730042,-0.2813200056552887,0.09821999818086624,0.22085000574588776,0.04430000111460686,0.3361000120639801,0.14180000126361847,0.1424500048160553,-0.37435001134872437,0.003980000037699938,0.216389998793602,0.0,0.12154000252485275,-0.04741999879479408,0.1742900013923645,-0.1669600009918213,0.17348000407218933,0.017680000513792038,0.11794999986886978,-0.023679999634623528,0.17114000022411346,0.22958000004291534,-0.16656999289989471,0.300570011138916,0.25986000895500183],[-0.17149999737739563,-0.25251999497413635,0.07575000077486038,0.4020799994468689,0.13041000068187714,0.27742999792099,0.1430100053548813,0.2528499960899353,-0.07429999858140945,-0.350490003824234,0.31874001026153564,0.2894600033760071,0.0800900012254715,0.35023000836372375,0.32427000999450684,-0.09706000238656998,0.23898999392986298,0.048650000244379044,-0.16213999688625336,-0.21390999853610992,0.42785999178886414,-0.47936999797821045,-0.09218999743461609,0.11675000190734863,-0.11699000000953674,0.05181000009179115,0.20082999765872955,-0.025049999356269836,0.2679100036621094,0.015850000083446503,0.12035000324249268,0.17098000645637512],[-0.028049999848008156,-0.057360000908374786,-0.035339999943971634,0.19668999314308167,0.16933000087738037,0.2863500118255615,0.07501000165939331,-0.030150000005960464,-0.11059000343084335,0.2699599862098694,-0.19947999715805054,0.2024099975824356,-0.05719999969005585,0.15967999398708344,-0.42392000555992126,0.4193499982357025,-0.08905000239610672,0.13597999513149261,-0.03984000161290169,0.294189989566803,-0.07661999762058258,0.398499995470047,-0.09697999805212021,-0.118709996342659,-0.45636001229286194,-0.14778000116348267,0.18720999360084534,-0.3944999873638153,0.09103000164031982,-0.024480000138282776,-0.1326799988746643,-0.07833000272512436],[-0.20882999897003174,0.1005999967455864,-0.2423900067806244,-0.021880000829696655,0.07071000337600708,0.17850999534130096,0.06583999842405319,0.03108000010251999,0.0689300000667572,0.07494000345468521,-0.10023000091314316,-0.14877000451087952,0.30507999658584595,0.11379999667406082,-0.13079999387264252,-0.05276000127196312,-0.10465999692678452,0.13804000616073608,-0.1720999926328659,-0.2531000077724457,0.023989999666810036,-0.41764000058174133,0.0559299997985363,-0.09910000115633011,-0.13749000430107117,-0.19216999411582947,0.17656999826431274,0.26003000140190125,-0.0034600000362843275,-0.010230000130832195,0.376120001077652,-0.1123099997639656],[-0.08247999846935272,0.28126999735832214,-0.16644999384880066,-0.4644800126552582,-0.037470001727342606,-0.38721001148223877,-0.03886000066995621,0.1661199927330017,-0.13123999536037445,0.31786999106407166,0.15131999552249908,-0.11488000303506851,-0.08933000266551971,0.1140500009059906,0.017000000923871994,-0.23205000162124634,0.18889999389648438,-0.13280999660491943,-0.0,0.041439998894929886,-0.17911000549793243,0.25466999411582947,0.16449999809265137,-0.19881999492645264,0.1918099969625473,0.08545000106096268,-0.00215000007301569,0.20389999449253082,-0.08479999750852585,-0.271340012550354,-0.051270000636577606,0.030810000374913216],[0.14322000741958618,-0.0406000018119812,-0.13636000454425812,0.3358500003814697,0.24260999262332916,0.2014400064945221,-0.24323999881744385,-0.22257000207901,-0.06511999666690826,0.3257099986076355,-0.2190999984741211,0.15158000588417053,0.03982999920845032,0.09329000115394592,0.11410000175237656,0.15362000465393066,-0.15478000044822693,-0.3457300066947937,-0.0348300002515316,0.2925800085067749,0.4147300124168396,0.16805000603199005,0.1632400006055832,-0.006570000201463699,-0.17610999941825867,-0.17964999377727509,0.04349999874830246,-0.20354999601840973,0.09741000086069107,-0.0791499987244606,-0.325219988822937,0.15207000076770782],[-0.1374099999666214,-0.02783999964594841,-0.24424000084400177,0.12372999638319016,-0.029319999739527702,-0.05432000011205673,0.030859999358654022,-0.1536799967288971,-0.059530001133680344,0.019710000604391098,0.1222900003194809,0.1447400003671646,0.38078001141548157,-0.039329998195171356,-0.10843999683856964,-0.175929993391037,0.07190000265836716,-0.1759600043296814,-0.019910000264644623,0.13280999660491943,0.035930000245571136,0.18423999845981598,-0.1730699986219406,-0.03765000030398369,0.042149998247623444,-0.452349990606308,0.24086999893188477,-0.09814000129699707,-0.13353000581264496,0.09894999861717224,0.3287400007247925,0.19115999341011047],[-0.01810000091791153,0.0004299999854993075,-0.16345000267028809,-0.33799999952316284,0.3574100136756897,-0.373879998922348,0.06614000350236893,0.014139999635517597,-0.29951000213623047,0.12118999660015106,0.16777999699115753,0.07283999770879745,0.36528000235557556,0.23589999973773956,0.2982800006866455,0.062219999730587006,0.0012799999676644802,-0.010280000045895576,-0.11924000084400177,0.39162999391555786,0.25053998827934265,-0.1783200055360794,0.14991000294685364,0.38256001472473145,-0.24668000638484955,-0.05892999842762947,0.23106999695301056,-0.28874000906944275,0.10824999958276749,-0.15163999795913696,0.3914099931716919,0.28725001215934753],[0.06338000297546387,0.0808899998664856,0.15464000403881073,0.5230000019073486,-0.054979998618364334,0.36065998673439026,-0.2003300040960312,0.10343000292778015,-0.013179999776184559,-0.19307999312877655,0.005280000157654285,0.08812999725341797,0.2072400003671646,0.31657999753952026,-0.1887899935245514,0.03338000178337097,0.017480000853538513,0.22696000337600708,-0.08739999681711197,0.06227000057697296,0.35613998770713806,0.094760000705719,-0.09103000164031982,-0.07027000188827515,0.1853400021791458,-0.37042999267578125,0.40988999605178833,0.2592700123786926,0.15493999421596527,0.05858999863266945,0.5134999752044678,0.09403999894857407],[0.16009999811649323,-0.012889999896287918,-0.26093998551368713,0.38940998911857605,0.27518001198768616,0.33726000785827637,0.2904900014400482,-0.04334999993443489,0.004459999967366457,0.029980000108480453,-0.025800000876188278,-0.335999995470047,0.0663599967956543,-0.08229000121355057,-0.04027000069618225,-0.02696000039577484,-0.40487000346183777,-0.1412000060081482,0.21585999429225922,0.029410000890493393,0.019670000299811363,0.12276999652385712,-0.03516000136733055,0.3948400020599365,0.23398999869823456,-0.5842800140380859,0.3029699921607971,0.35139000415802,0.019780000671744347,-0.010320000350475311,0.27799999713897705,-0.07113999873399734],[0.05384000018239021,-0.11563999950885773,0.44394999742507935,0.16232000291347504,0.23997999727725983,0.23639999330043793,-0.16985000669956207,-0.14433999359607697,-0.04318000003695488,-0.07701999694108963,0.12347999960184097,0.04129999876022339,-0.15102000534534454,0.44881001114845276,0.15782999992370605,0.027319999411702156,0.4365899860858917,-0.0810299962759018,0.0,-0.16568000614643097,0.35572001338005066,-0.3118700087070465,0.18862999975681305,-0.23959000408649445,0.14632999897003174,-0.17803999781608582,0.08615999668836594,0.11708000302314758,0.029829999431967735,0.328029990196228,-0.04707000032067299,-0.1424500048160553],[0.25192001461982727,0.25418001413345337,0.2943899929523468,-0.20768000185489655,0.2105800062417984,-0.16697999835014343,-0.3343900144100189,-0.006370000075548887,0.03558000177145004,0.03675999864935875,0.04297000169754028,0.1027199998497963,-0.11917000263929367,0.00044999999227002263,0.187950000166893,-0.27177000045776367,0.3175399899482727,-0.08541999757289886,-0.021689999848604202,0.03285999968647957,0.27897998690605164,0.029589999467134476,0.16629000008106232,-0.05222000181674957,0.047919999808073044,0.1830900013446808,-0.31784000992774963,-0.002090000081807375,0.28575000166893005,0.25321000814437866,0.17901000380516052,0.15588000416755676],[0.14601999521255493,0.37950000166893005,-0.7651200294494629,-0.0031999999191612005,-0.5593600273132324,0.10306999832391739,0.34871000051498413,-0.5061699748039246,0.0803999975323677,-0.33831000328063965,0.24017000198364258,-0.15866999328136444,0.12925000488758087,0.2539600133895874,0.1797100007534027,-0.040460001677274704,-0.44231998920440674,-0.2743000090122223,0.029740000143647194,0.4409500062465668,0.15851999819278717,0.04414999857544899,0.3288399875164032,0.21140000224113464,0.2644299864768982,-0.08924999833106995,0.22182999551296234,0.20444999635219574,0.18435999751091003,-0.13077999651432037,0.04287999868392944,0.40053999423980713],[-0.05062999948859215,0.3017500042915344,0.06691999733448029,-0.2664499878883362,-0.07130999863147736,-0.025110000744462013,-0.22649000585079193,0.001500000013038516,0.009610000066459179,0.2022700011730194,-0.2662599980831146,0.14685000479221344,0.3770599961280823,0.28075000643730164,0.16439999639987946,-0.12255000323057175,0.15689000487327576,-0.20574000477790833,-0.23921999335289001,0.039000000804662704,0.10481999814510345,0.2775300145149231,0.16999000310897827,0.018130000680685043,-0.03757999837398529,0.07592999935150146,-0.22526000440120697,-0.09980999678373337,-0.18355000019073486,0.1719300001859665,0.17387999594211578,-0.1551699936389923],[-0.4010399878025055,0.04704999923706055,0.13861000537872314,-0.37084999680519104,0.4275999963283539,-0.3146199882030487,-0.20149999856948853,0.3085300028324127,-0.01981000043451786,0.19596999883651733,-0.06350000202655792,-0.016100000590085983,0.3648099899291992,0.13981999456882477,0.298909991979599,-0.3665499985218048,0.15726999938488007,-0.22838999330997467,0.0,-0.3403100073337555,0.2341099977493286,-0.30232998728752136,0.19290000200271606,-0.10767000168561935,0.10136999934911728,0.2518399953842163,0.09133999794721603,0.2429399937391281,0.26535001397132874,0.1609800010919571,0.12631000578403473,-0.2028300017118454],[0.4032900035381317,0.1336899995803833,-0.07419999688863754,-0.08993999660015106,-0.2786000072956085,-0.25626999139785767,0.16911999881267548,-0.1294499933719635,-0.04828999936580658,0.1390800029039383,-0.1714400053024292,-0.1139800027012825,0.07231000065803528,0.32868000864982605,-0.030330000445246696,0.033149998635053635,-0.34182998538017273,-0.30476999282836914,-0.06311000138521194,0.15783999860286713,0.18456000089645386,0.0944100022315979,0.23690000176429749,0.3210799992084503,0.1562899947166443,-0.39691001176834106,-0.11243999749422073,-0.186599999666214,-0.14386999607086182,0.26392999291419983,-0.16031000018119812,0.0840499997138977],[0.1727599948644638,0.19505000114440918,-0.27425000071525574,-0.16540999710559845,-0.19479000568389893,-0.07371000200510025,-0.08829999715089798,-0.21107999980449677,-0.34393998980522156,-0.3853900134563446,0.14052000641822815,-0.29186999797821045,0.23220999538898468,0.09869000315666199,0.22885000705718994,-0.13499000668525696,-0.28815001249313354,-0.07150000333786011,0.04210999980568886,0.25060999393463135,-0.1391099989414215,0.3285599946975708,-0.08247999846935272,0.22758999466896057,0.07167000323534012,-0.04966000095009804,0.2877599895000458,0.23348000645637512,-0.21928000450134277,0.13867999613285065,-0.08615999668836594,0.30292001366615295],[0.10169000178575516,0.27518999576568604,-0.03313000127673149,-0.06367000192403793,0.01688000001013279,-0.043150000274181366,-0.09354999661445618,0.044860001653432846,-0.03564999997615814,-0.01721999980509281,0.1784300059080124,-0.1436000019311905,0.24265000224113464,0.06350000202655792,-0.1637900024652481,0.22842000424861908,0.1734600067138672,-0.11281000077724457,-0.0,0.1530900001525879,-0.0796699970960617,0.45513999462127686,0.31586000323295593,0.03985999897122383,-0.021050000563263893,0.15511000156402588,-0.6517599821090698,-0.17215999960899353,-0.11956000328063965,0.06808000057935715,0.06616999953985214,0.09625999629497528],[-0.07161000370979309,-0.050289999693632126,0.1182899996638298,-0.1097399964928627,0.40029001235961914,-0.19189000129699707,0.30702999234199524,0.17137999832630157,0.10560999810695648,0.20770999789237976,-0.011900000274181366,0.2805800139904022,0.2568199932575226,0.10525000095367432,-0.07996000349521637,-0.0963200032711029,0.38839998841285706,0.0545400008559227,-0.0,-0.19413000345230103,0.2433999925851822,-0.423880010843277,0.04997999966144562,0.1667799949645996,0.09877999871969223,-0.10244999825954437,0.2624500095844269,0.008960000239312649,0.3633599877357483,0.07817000150680542,0.16176000237464905,0.17817999422550201],[0.11595000326633453,0.1618500053882599,-0.13982999324798584,-0.009180000051856041,-0.2105800062417984,-0.18764999508857727,0.2510800063610077,-0.20739999413490295,0.16929000616073608,0.05023999884724617,0.11569999903440475,-0.15401999652385712,0.25255000591278076,-0.028839999809861183,-0.10787999629974365,-0.11386000365018845,-0.2542000114917755,0.013450000435113907,-0.017750000581145287,0.16971999406814575,0.08824999630451202,0.04611999914050102,0.21578000485897064,0.09088999778032303,0.060350000858306885,-0.0938899964094162,-0.6550599932670593,0.05017000064253807,0.13689999282360077,0.06818000227212906,0.027809999883174896,0.18517999351024628],[0.14402000606060028,0.24266000092029572,-0.07143999636173248,-0.09373000264167786,0.03029000014066696,-0.2244900017976761,-0.1690099984407425,0.3132599890232086,-0.30414000153541565,0.0379600003361702,-0.13436999917030334,0.2308499962091446,-0.040950000286102295,0.1407099962234497,-0.14979000389575958,-0.29912999272346497,0.31679999828338623,0.015049999579787254,-0.0579800009727478,0.27498000860214233,0.08507999777793884,0.2676900029182434,0.04645000025629997,0.019339999184012413,-0.04560000076889992,0.08100000023841858,-0.2626500129699707,-0.37946000695228577,-0.10369999706745148,0.2112399935722351,-0.17137999832630157,0.07656999677419662],[0.2610200047492981,-0.1177700012922287,0.31972000002861023,-0.24502000212669373,0.2789100110530853,-0.007259999867528677,0.16550999879837036,0.26298999786376953,0.3873000144958496,0.2529900074005127,-0.07422000169754028,0.2525100111961365,0.010520000010728836,0.06306000053882599,-0.27125999331474304,0.26041001081466675,0.18655000627040863,0.07859999686479568,-0.016039999201893806,0.0043299999088048935,0.16966000199317932,0.18199999630451202,-0.11625000089406967,-0.06669999659061432,0.3291800022125244,-0.20600999891757965,0.006709999870508909,-0.05276000127196312,0.38534998893737793,0.3319999873638153,-0.021199999377131462,0.034949999302625656],[0.28233999013900757,0.0832500010728836,-0.22314000129699707,0.30882999300956726,0.12473999708890915,0.24377000331878662,0.2496200054883957,-0.13781000673770905,0.34994998574256897,-0.07145000249147415,0.18998999893665314,-0.2831900119781494,0.08009999990463257,-0.07040999829769135,0.06717000156641006,0.2138500064611435,-0.3349800109863281,-0.033629998564720154,-0.14264999330043793,0.040389999747276306,0.13861000537872314,-0.06697999686002731,0.27257001399993896,0.1435600072145462,0.21650999784469604,-0.286080002784729,-0.027499999850988388,0.27366000413894653,-0.10254000127315521,0.05996000021696091,-0.11800000071525574,-0.010280000045895576],[-0.4294799864292145,-0.01245999988168478,0.10582000017166138,0.31477001309394836,0.05923999845981598,0.15925000607967377,0.3233799934387207,0.23214000463485718,0.3444400131702423,-0.179749995470047,-0.06684999912977219,-0.298880010843277,0.14524999260902405,0.18803000450134277,-0.05215999856591225,0.4819200038909912,-0.18246999382972717,0.5343599915504456,-0.058309998363256454,-0.5214400291442871,-0.014829999767243862,-0.4421499967575073,-0.33472999930381775,0.11072999984025955,0.38808000087738037,-0.24794000387191772,0.11670000106096268,0.22754999995231628,0.12022999674081802,-0.18959000706672668,0.3462899923324585,-0.210439994931221],[-0.02043999917805195,0.05262000113725662,0.026820000261068344,-0.0690699964761734,0.091559998691082,-0.2692599892616272,0.19300000369548798,-0.0741100013256073,0.37209999561309814,0.08670999854803085,0.11767999827861786,0.2910600006580353,-0.4694100022315979,-0.07277999818325043,0.19700999557971954,0.19664999842643738,0.08077999949455261,0.3878999948501587,-0.07806999981403351,-0.07692000269889832,0.29840999841690063,0.0952799990773201,0.1882299929857254,0.2122199982404709,-0.11050999909639359,-0.06892000138759613,0.006279999855905771,-0.04278000071644783,0.22797000408172607,0.26478999853134155,0.14546999335289001,-0.2457199990749359],[0.040300000458955765,-0.04910999909043312,0.04893999919295311,0.013439999893307686,0.24361999332904816,0.18380999565124512,-0.25644001364707947,-0.1832599937915802,-0.29982998967170715,-0.06803999841213226,0.15392999351024628,0.12993000447750092,0.10487999767065048,0.06954000145196915,0.22120000422000885,-0.16620999574661255,0.3112800121307373,-0.14177000522613525,-0.006969999987632036,-0.009340000338852406,0.23066000640392303,0.09390000253915787,0.23687000572681427,0.3981899917125702,-0.2974900007247925,-0.6210899949073792,0.32885000109672546,0.04456999897956848,0.017729999497532845,-0.17733000218868256,-0.10311999917030334,0.4174500107765198],[-0.16473999619483948,0.04828000068664551,-0.05332000181078911,-0.4113900065422058,-0.10544999688863754,-0.23352999985218048,-0.2276799976825714,0.3055799901485443,-0.028629999607801437,0.1442900002002716,0.1657000035047531,0.13273000717163086,0.10565000027418137,0.10559999942779541,-0.17050999402999878,-0.17141999304294586,0.5609800219535828,-0.2256300002336502,-0.0,0.052480001002550125,-0.00015999999595806003,-0.17696000635623932,0.06868000328540802,-0.038750000298023224,0.13131999969482422,0.2590399980545044,-0.7667099833488464,0.060750000178813934,-0.1428699940443039,-0.05601000040769577,0.02443999983370304,-0.003370000049471855],[0.06335999816656113,0.2414799928665161,0.3709299862384796,-0.07372000068426132,-0.034860000014305115,-0.14201000332832336,0.3139300048351288,0.3248699903488159,0.16178999841213226,0.320609986782074,0.05268000066280365,0.11862000077962875,-0.23274999856948853,0.19107000529766083,-0.2154799997806549,0.21863999962806702,0.2518799901008606,0.15320000052452087,-0.20652000606060028,-0.15845000743865967,0.055309999734163284,-0.002369999885559082,-0.15782000124454498,0.013679999858140945,0.27233999967575073,-0.3199999928474426,-0.5201500058174133,0.04616999998688698,0.024529999122023582,0.09859000146389008,0.1968899965286255,0.013260000385344028],[0.5044299960136414,0.33792999386787415,-0.31797999143600464,-0.030079999938607216,-0.38451001048088074,-0.012509999796748161,-0.026830000802874565,0.014299999922513962,0.28009000420570374,0.26238998770713806,0.11486999690532684,-0.19492000341415405,-0.12331999838352203,-0.02053000032901764,-0.24196000397205353,0.16697999835014343,-0.13766999542713165,0.17869000136852264,0.04363999888300896,0.33465999364852905,-0.06989999860525131,0.429500013589859,0.40966999530792236,0.11847999691963196,0.20884999632835388,0.2058199942111969,-0.44207999110221863,-0.061879999935626984,0.00827999971807003,-0.06926999986171722,-0.2812100052833557,-0.11061999946832657],[-0.3902199864387512,-0.20541000366210938,0.49261999130249023,0.06328000128269196,0.39831000566482544,0.026429999619722366,-0.06383000314235687,0.14610999822616577,-0.06695999950170517,-0.13925999402999878,0.0694499984383583,-0.007660000119358301,0.11627999693155289,0.17147000133991241,-0.09220000356435776,-0.40299999713897705,0.35826998949050903,0.01981000043451786,-0.155799999833107,-0.01875000074505806,-0.07047999650239944,-0.12871000170707703,0.2133300006389618,-0.08522000163793564,-0.056379999965429306,-0.32743000984191895,-0.049890000373125076,-0.11957000195980072,0.3082900047302246,-0.12421999871730804,0.27698999643325806,0.2515000104904175],[-0.243259996175766,0.2555699944496155,-0.07147999852895737,0.3987500071525574,-0.42517998814582825,0.011959999799728394,-0.2075899988412857,0.177279993891716,0.13147999346256256,-0.30858999490737915,0.1893399953842163,0.16672000288963318,0.7132200002670288,-0.16438999772071838,0.34299999475479126,-0.18911999464035034,0.2335599958896637,-0.19933000206947327,-0.0,-0.596530020236969,0.48173001408576965,-0.7816699743270874,0.1277499943971634,0.058469999581575394,-0.06729999929666519,0.6993299722671509,9.999999747378752e-06,0.39812999963760376,0.35139000415802,0.0442500002682209,0.09673000127077103,0.3519900143146515],[0.02848000079393387,0.6838499903678894,-1.1635799407958984,0.10502000153064728,-0.7978299856185913,-0.0032500000670552254,0.47137001156806946,-0.467739999294281,0.1499900072813034,-0.10107000172138214,0.4149700105190277,-0.37150999903678894,0.5518900156021118,-0.00773000018671155,-0.17896999418735504,0.11657000333070755,-0.5325899720191956,-0.006909999996423721,-0.12841999530792236,0.4015200138092041,-0.18973000347614288,0.4820599853992462,0.4271799921989441,0.2637900114059448,0.49125000834465027,0.4190399944782257,0.3022100031375885,0.3366599977016449,-0.4750399887561798,0.014670000411570072,-0.22316999733448029,0.32923001050949097],[0.20774999260902405,0.18242000043392181,-0.4621799886226654,-0.4362500011920929,-0.004259999841451645,-0.4909000098705292,-0.1339000016450882,-0.3217200040817261,0.26399001479148865,0.18416999280452728,0.017740000039339066,-0.215829998254776,0.08714000135660172,0.20919999480247498,0.2012699991464615,0.000910000002477318,-0.22787000238895416,-0.1186399981379509,-0.013269999995827675,0.2976599931716919,-0.01116000022739172,-0.07130999863147736,-0.04830000177025795,0.4403800070285797,-0.11671999841928482,0.04546000063419342,-0.08990000188350677,0.13741999864578247,-0.1629199981689453,-0.14948999881744385,0.1824900060892105,0.2001499980688095],[0.06645999848842621,0.12842999398708344,-0.04766999930143356,0.39452001452445984,0.17621000111103058,0.07400999963283539,0.33972999453544617,0.13535000383853912,0.21003000438213348,0.2621299922466278,0.2038400024175644,0.27199000120162964,-0.2686600089073181,-0.0877700001001358,0.19913999736309052,-0.019360000267624855,-0.039799999445676804,0.040789999067783356,-0.03629999980330467,-0.019050000235438347,0.45041999220848083,-0.01834000088274479,-0.06910999864339828,-0.33643999695777893,0.4268600046634674,-0.4252299964427948,-0.30309998989105225,0.23267999291419983,0.2539899945259094,0.336650013923645,0.14568999409675598,-0.13544000685214996],[0.11890999972820282,-0.07733000069856644,0.24953000247478485,0.3455899953842163,0.28995999693870544,0.40817999839782715,-0.12549999356269836,0.07862000167369843,0.3316600024700165,0.38679999113082886,-0.3238399922847748,-0.206619992852211,-0.1192300021648407,0.3096500039100647,0.07106000185012817,-0.16861000657081604,0.13905000686645508,0.2810499966144562,0.03141999989748001,0.04769999906420708,0.17326000332832336,0.05666999891400337,-0.2154500037431717,0.04340999945998192,0.02280000038444996,-0.012810000218451023,0.19286000728607178,0.06711000204086304,-0.03635000064969063,0.03660999983549118,-0.17577999830245972,-0.1667799949645996],[0.11217000335454941,0.3775100111961365,-0.32638999819755554,0.09221000224351883,0.13646000623703003,-0.13086000084877014,0.1504400074481964,0.1418599933385849,0.1652899980545044,0.04789000004529953,-0.05964000150561333,0.17122000455856323,-0.003700000001117587,-0.2303600013256073,0.14402000606060028,-0.0911799967288971,0.11123999953269958,-0.2198600023984909,0.18772000074386597,-0.11226999759674072,0.021810000762343407,-0.05167999863624573,0.0014400000218302011,0.12133999913930893,0.46349000930786133,0.08489999920129776,-0.13157999515533447,0.14482000470161438,0.15227000415325165,0.1441899985074997,-0.13725000619888306,-0.020579999312758446],[0.06519000232219696,-0.2868100106716156,0.2934899926185608,0.10553000122308731,0.05996999889612198,-0.3767400085926056,0.24911999702453613,0.2612000107765198,0.1685200035572052,-0.18359999358654022,0.0652099996805191,0.02727000042796135,-0.18859000504016876,-0.16118000447750092,-0.04862000048160553,0.42386001348495483,-0.11548999696969986,0.46483999490737915,-0.0014199999859556556,-0.23557999730110168,-0.17991000413894653,-0.10598000138998032,-0.14472000300884247,0.2209399938583374,0.31523001194000244,-0.003700000001117587,-0.15658999979496002,0.06027999892830849,-0.07625000178813934,-0.011029999703168869,0.26802000403404236,-0.2649399936199188],[0.21563999354839325,0.02102000080049038,0.16923999786376953,0.7998800277709961,0.26370999217033386,0.3623799979686737,0.1492599993944168,0.19859999418258667,-0.022549999877810478,0.10046999901533127,0.13782000541687012,-0.15523000061511993,0.15500999987125397,0.3335599899291992,-0.3558799922466278,-0.16901999711990356,-0.26504001021385193,-0.1787099987268448,-0.07890000194311142,0.22870999574661255,-0.006769999861717224,0.15624000132083893,-0.21047000586986542,0.1531900018453598,-0.036090001463890076,-0.07511000335216522,0.6948599815368652,0.15943999588489532,-0.2662299871444702,0.16508999466896057,-0.08383999764919281,0.0659400001168251],[-0.5257200002670288,-0.1910499930381775,0.057840000838041306,0.21831999719142914,-0.14505000412464142,-0.039719998836517334,0.3139199912548065,0.11924999952316284,0.18292999267578125,0.02913999930024147,0.19735999405384064,-0.07481999695301056,0.229980006814003,-0.2995299994945526,-0.18717999756336212,0.15759000182151794,-0.07541999965906143,0.14190000295639038,0.07453999668359756,-0.3597399890422821,-0.3184399902820587,-0.19972999393939972,-0.31014999747276306,0.2739199995994568,0.16268999874591827,0.06877999752759933,-0.38231000304222107,-0.0318400003015995,0.09266000241041183,-0.3326900005340576,0.44550999999046326,-0.30136001110076904],[-0.1196800023317337,0.25446999073028564,-0.19516000151634216,0.9043400287628174,0.3514699935913086,0.3716300129890442,0.4323999881744385,-0.10619000345468521,0.13327999413013458,0.06640999764204025,0.19585999846458435,0.0780399963259697,-0.17848999798297882,0.193340003490448,-0.8114299774169922,0.20568999648094177,-0.31294000148773193,0.48868000507354736,0.0408799983561039,-0.07047999650239944,-0.4153299927711487,-0.05909999832510948,-0.29965001344680786,-0.155239999294281,0.3899799883365631,-0.06871999800205231,0.5642200112342834,-0.03962999954819679,-0.012629999779164791,0.034370001405477524,-0.2588300108909607,-0.004780000075697899],[-0.05857999995350838,-0.17372000217437744,-0.07218000292778015,-0.19257999956607819,-0.023649999871850014,-0.16494999825954437,0.03945000097155571,0.2256699949502945,-0.09604000300168991,0.04332999885082245,0.10910999774932861,0.055959999561309814,-0.015490000136196613,0.1909099966287613,0.2933399975299835,-0.023809999227523804,-0.025790000334382057,0.16062000393867493,0.0,-0.1092899963259697,-0.2161100059747696,-0.1798200011253357,0.15246999263763428,0.13343000411987305,-0.32093000411987305,0.2221899926662445,0.015990000218153,0.2028599977493286,-0.1346299946308136,0.019050000235438347,0.4407599866390228,0.19475999474525452],[-0.4525800049304962,0.024320000782608986,-0.036649998277425766,-0.04806999862194061,-0.25505000352859497,-0.048340000212192535,-0.21047000586986542,-0.1930299997329712,0.2719300091266632,-0.2464900016784668,0.4995799958705902,0.3674300014972687,0.12609000504016876,0.006539999973028898,0.022290000692009926,0.35899001359939575,0.029920000582933426,0.2146099954843521,-0.0,0.001509999972768128,0.3887900114059448,0.06885000318288803,0.04441000148653984,0.3040600121021271,0.06949999928474426,0.6728600263595581,-0.0975399985909462,0.6660900115966797,0.08092000335454941,0.32462000846862793,-0.29875001311302185,0.05249999836087227],[-0.1673399955034256,0.26423999667167664,0.1602499932050705,-0.41429999470710754,0.11903999745845795,-0.17271000146865845,-0.30904000997543335,0.3802799880504608,0.2117599993944168,0.08817999809980392,0.19697000086307526,0.04554999992251396,0.36305999755859375,0.29343000054359436,0.16898000240325928,-0.2383899986743927,0.4037899971008301,-0.14193999767303467,-0.0,-0.2483000010251999,0.09668000042438507,0.038430001586675644,0.18625999987125397,0.185139998793602,-0.26030001044273376,0.14395999908447266,-0.27663999795913696,0.20082999765872955,0.20778000354766846,0.09543000161647797,0.1774200052022934,-0.04726000130176544],[0.1593800038099289,0.26260998845100403,-0.024609999731183052,-0.07146000117063522,-0.03147000074386597,0.16794000566005707,-0.15139000117778778,-0.23360000550746918,0.2885800004005432,0.33048999309539795,-0.2894099950790405,0.02817000076174736,-0.13774999976158142,-0.00041000000783242285,0.0878399983048439,0.1527000069618225,-0.03945000097155571,-0.19944000244140625,-0.08782000094652176,0.29168999195098877,0.24521000683307648,0.4401400089263916,0.2583500146865845,-0.2771399915218353,0.1399099975824356,-0.20194999873638153,-0.20611999928951263,-0.4016999900341034,-0.044599998742341995,0.3878900110721588,-0.4846000075340271,0.22990000247955322],[-0.015359999611973763,0.11037000268697739,0.019120000302791595,0.12105000019073486,-0.014010000042617321,-0.09836000204086304,-0.23017999529838562,-0.02785000018775463,0.06255000084638596,0.19670000672340393,0.23513999581336975,0.12713000178337097,0.3142800033092499,0.2875699996948242,-0.03384999930858612,0.11038000136613846,0.05812999978661537,-0.15094999969005585,-0.03720000013709068,0.07067999988794327,0.21157999336719513,0.3180600106716156,0.1781499981880188,0.056359998881816864,0.13795000314712524,-0.5285099744796753,0.06937000155448914,-0.29120001196861267,0.22411000728607178,0.2025199979543686,-0.15343999862670898,0.3113499879837036],[-0.10406000167131424,0.3214600086212158,-0.08003000169992447,0.24687999486923218,-0.2575699985027313,0.16840000450611115,0.29412999749183655,-0.07711999863386154,0.28707998991012573,0.009270000271499157,0.22832000255584717,-0.2507399916648865,0.10340999811887741,-0.054409999400377274,-0.4431999921798706,-0.032030001282691956,-0.22517000138759613,-0.08409000188112259,-0.1088699996471405,-0.04252000153064728,-0.014259999617934227,0.027879999950528145,0.2366500049829483,-0.22439000010490417,0.5268200039863586,0.326339989900589,0.12354999780654907,0.10399000346660614,0.1531900018453598,-0.027070000767707825,-0.30226001143455505,-0.040789999067783356],[0.10402999818325043,-0.2552199959754944,0.2635500133037567,0.3032599985599518,0.3324199914932251,0.054979998618364334,-0.28817999362945557,0.21448999643325806,0.07528000324964523,-0.12664000689983368,-0.24536000192165375,0.423550009727478,0.08065000176429749,0.2727600038051605,0.3032799959182739,-0.01143999956548214,0.18959000706672668,-0.030950000509619713,-0.015879999846220016,-0.16631999611854553,0.3645099997520447,0.055720001459121704,0.252020001411438,-0.06977000087499619,-0.016939999535679817,-0.061650000512599945,0.09948000311851501,0.005979999899864197,0.03355000168085098,0.13555000722408295,-0.10627000033855438,-0.06379999965429306],[-0.03398999944329262,0.17583000659942627,0.4049699902534485,-0.13767999410629272,0.2534100115299225,0.030869999900460243,0.0827300027012825,-0.03799000009894371,0.025119999423623085,0.031279999762773514,-0.0832199975848198,-0.10830000042915344,-0.21995000541210175,-0.00786999985575676,0.2621699869632721,-0.15413999557495117,0.18389999866485596,-0.25655999779701233,-0.0,-0.24020999670028687,0.033879999071359634,0.03178999945521355,-0.14904999732971191,-0.4610300064086914,-0.03214000165462494,-0.16216999292373657,-0.41043001413345337,-0.02085000090301037,0.27709999680519104,0.15508000552654266,-0.07500000298023224,-0.0711899995803833],[0.32405000925064087,0.001500000013038516,-0.1455399990081787,-0.04061000049114227,-0.2699100077152252,-0.17409999668598175,0.10373000055551529,0.2409600019454956,0.09791000187397003,0.2409600019454956,0.21844999492168427,-0.018149999901652336,-0.2765899896621704,-0.0941300019621849,-0.06706000119447708,0.07254999876022339,0.16051000356674194,0.11990000307559967,-0.013330000452697277,-0.11614999920129776,0.3512600064277649,0.3909600079059601,0.25911998748779297,-0.24854999780654907,0.0944100022315979,0.04571999981999397,-0.33340001106262207,-0.21044999361038208,0.132750004529953,0.2659600079059601,-0.45579999685287476,-0.07867000252008438],[0.017969999462366104,-0.0831499993801117,-0.3235599994659424,-0.23880000412464142,0.2804099917411804,-0.46424001455307007,-0.3976899981498718,0.01672999933362007,0.05951999872922897,0.20413999259471893,0.10879000276327133,-0.047129999846220016,0.26973000168800354,-0.10027000308036804,0.23413999378681183,0.01834000088274479,0.22271999716758728,0.17813999950885773,0.0,-0.09283000230789185,0.14877000451087952,-0.23579999804496765,0.02191999927163124,-0.025939999148249626,-0.4092400074005127,-0.030489999800920486,-0.2825399935245514,-0.095660001039505,0.020679999142885208,-0.22690999507904053,0.024970000609755516,0.05618999898433685],[-0.260670006275177,0.05959999933838844,0.07195000350475311,0.3677600026130676,0.24539999663829803,-0.06933999806642532,0.14806999266147614,0.026240000501275063,-0.11348000168800354,0.16058999300003052,0.09175000339746475,0.12816999852657318,0.40136000514030457,0.3227199912071228,0.38144999742507935,-0.00279999990016222,0.08985999971628189,0.2757300138473511,-0.0624300017952919,0.0376100018620491,0.2023099958896637,-0.052379999309778214,-0.19283999502658844,0.08364000171422958,-0.07773999869823456,-0.3610199987888336,0.3597699999809265,0.14396999776363373,-0.10047999769449234,-0.34742000699043274,0.40108999609947205,0.15196000039577484],[0.002739999908953905,-0.21063999831676483,-0.09911999851465225,-0.20398999750614166,0.2350199967622757,-0.08223000168800354,-0.13580000400543213,-0.07880000025033951,0.27066001296043396,0.18738999962806702,-0.007639999967068434,-0.2206999957561493,0.1836400032043457,-0.05421999841928482,0.13502000272274017,0.0587100014090538,0.11441999673843384,-0.30059000849723816,-0.0989999994635582,0.10074000060558319,-0.17441999912261963,-0.13203999400138855,0.10770999640226364,0.02833000011742115,-0.11420000344514847,0.18515999615192413,-0.2215999960899353,0.14147000014781952,-0.03310000151395798,0.06168999895453453,0.1639699935913086,0.12871000170707703],[0.3233500123023987,-0.0030799999367445707,0.3267099857330322,-0.47933998703956604,0.0521400012075901,-0.25808998942375183,-0.1076899990439415,-0.10745000094175339,0.14464999735355377,0.2097499966621399,0.04456000030040741,0.25957000255584717,-0.015230000019073486,0.0521400012075901,-0.04667000100016594,-0.19444000720977783,-0.07120999693870544,-0.25056999921798706,-0.10399000346660614,0.21180999279022217,0.1435600072145462,0.0892999991774559,0.15877999365329742,-0.29940998554229736,0.10029999911785126,0.07655999809503555,-0.7350800037384033,-0.1454399973154068,0.3586199879646301,0.2701599895954132,-0.01343000028282404,0.0101500004529953],[0.190870001912117,0.00046999999904073775,-0.01107999961823225,-0.18303999304771423,-0.045079998672008514,0.05716000124812126,-0.10417000204324722,0.21692000329494476,0.36862999200820923,0.2886599898338318,0.004730000160634518,0.2713800072669983,-0.324290007352829,0.12302999943494797,-0.3513700067996979,0.2920700013637543,-0.16955000162124634,0.20418000221252441,0.18805000185966492,-0.12050999701023102,0.13843999803066254,0.4230499863624573,0.10939999669790268,0.06621000170707703,0.19160999357700348,-0.1494400054216385,-0.5051400065422058,-0.17507000267505646,0.08833999931812286,0.062449999153614044,-0.13328999280929565,-0.0588500015437603],[0.029279999434947968,0.35429999232292175,0.28411999344825745,0.2740800082683563,0.20307999849319458,0.36796000599861145,0.02500000037252903,0.24463999271392822,0.02800999954342842,-0.00033000000985339284,0.28185999393463135,0.06584999710321426,0.23340000212192535,0.1782499998807907,-0.15202000737190247,0.22551999986171722,-0.1491200029850006,-0.05906999856233597,0.039239998906850815,0.2207999974489212,-0.01209999993443489,0.08528999984264374,0.2524000108242035,-0.02751999907195568,0.23514999449253082,-0.45938000082969666,-0.11561000347137451,-0.04755000025033951,0.027659999206662178,0.010990000329911709,-0.24226999282836914,0.22247999906539917],[-0.4082599878311157,0.36173999309539795,0.27542001008987427,0.2310599982738495,-0.12817999720573425,-0.10175999999046326,0.33160001039505005,0.3571299910545349,0.2171899974346161,0.011780000291764736,0.18980999290943146,0.05000999942421913,-0.020029999315738678,0.11830999702215195,0.16029000282287598,0.2972399890422821,-0.20351000130176544,0.13610999286174774,-0.02459000051021576,-0.18477000296115875,-0.07266999781131744,-0.3437199890613556,-0.09617999941110611,-0.1917800009250641,0.3194099962711334,0.1505499929189682,-0.3674300014972687,0.32642999291419983,-0.11462000012397766,-0.10140000283718109,0.044039998203516006,-0.12714999914169312]],"biases":[0.19766999781131744,0.20038999617099762,-0.13124999403953552,-0.25598999857902527,0.023490000516176224,-0.23243999481201172,-0.06958000361919403,0.016659999266266823,0.24833999574184418,0.3641600012779236,-0.022520000115036964,0.28859999775886536,0.039639998227357864,0.08839999884366989,-0.015650000423192978,0.11247000098228455,0.3530600070953369,0.05706999823451042,-0.08894000202417374,0.14024999737739563,-0.0406000018119812,0.29690998792648315,0.09724000096321106,0.014279999770224094,0.1367799937725067,-0.17162999510765076,-0.3816800117492676,0.1568399965763092,-0.05153999850153923,0.16357000172138214,0.2680499851703644,0.161080002784729],"activation":"relu"},{"weights":[[0.20645999908447266,0.0780399963259697,-0.40171000361442566,0.08124999701976776,-0.16158999502658844,-0.041850000619888306,-0.18242999911308289,-0.0,0.25602999329566956,-0.6493800282478333,0.2853600084781647,-0.15335999429225922,-0.4125100076198578,-0.017009999603033066,-0.43933001160621643,0.04108000174164772],[0.21953000128269196,-0.2034199982881546,0.41227999329566956,-0.4697999954223633,-0.08676999807357788,0.18681000173091888,-0.22266000509262085,-0.12060000002384186,0.08229999989271164,-0.1296200007200241,0.3674199879169464,-0.17359000444412231,0.24799999594688416,0.3351599872112274,-0.11196999996900558,0.35989001393318176],[0.015189999714493752,0.5042499899864197,-0.39416998624801636,0.1570100039243698,-0.010700000450015068,0.07236000150442123,0.03914999961853027,0.002309999894350767,-0.7693700194358826,-0.37171000242233276,-0.19329999387264252,0.1057099997997284,0.6638799905776978,0.22454999387264252,0.3112500011920929,0.3412899971008301],[-0.12031000107526779,0.6129500269889832,0.7296900153160095,0.3190000057220459,-1.1282199621200562,-0.3603900074958801,0.29447001218795776,-0.01931999996304512,0.04204000160098076,-0.5661200284957886,-0.020080000162124634,-0.12234000116586685,0.2566399872303009,-0.48131999373435974,0.13728000223636627,-0.6517000198364258],[0.4447399973869324,0.39458999037742615,-0.2384600043296814,0.2035900056362152,0.14751000702381134,0.19947999715805054,-0.1052900031208992,0.0003800000122282654,-0.26392000913619995,0.11309000104665756,-0.5117800235748291,0.08523000031709671,0.488070011138916,-0.17324000597000122,0.12508000433444977,0.07056000083684921],[0.519860029220581,0.10741999745368958,0.5214700102806091,-0.3035399913787842,-0.9307799935340881,-0.5727699995040894,-0.2769699990749359,-0.0,-0.45219001173973083,0.053849998861551285,-0.38082000613212585,-0.10757999867200851,-0.07887999713420868,-0.4307500123977661,-0.6920899748802185,-0.24921999871730804],[-0.13771000504493713,0.2785800099372864,0.14007000625133514,0.10327000170946121,-0.19578999280929565,-0.22734999656677246,0.22939999401569366,-0.014809999614953995,0.25290998816490173,-0.2913599908351898,0.33776000142097473,0.12901000678539276,0.2418999969959259,0.5410900115966797,-0.32804998755455017,-0.519569993019104],[0.22846999764442444,0.35637998580932617,-0.09111999720335007,-0.1424500048160553,-0.36952000856399536,-0.2615799903869629,0.1717199981212616,-0.022539999336004257,-0.2123199999332428,0.10554999858140945,-0.34338998794555664,-0.19054999947547913,0.4492399990558624,0.41071999073028564,0.2603900134563446,-0.4084100127220154],[0.38321998715400696,0.29096999764442444,0.3102700114250183,-0.0871099978685379,0.002090000081807375,-0.25562000274658203,-0.42653000354766846,-0.09014999866485596,-0.10253000259399414,-0.1858700066804886,0.3088400065898895,-0.05886000022292137,-0.21281999349594116,0.39695999026298523,0.23547999560832977,0.34755000472068787],[0.5673999786376953,0.08116000145673752,0.33695000410079956,-0.2576099932193756,-0.058720000088214874,-0.28859999775886536,-0.3971500098705292,-0.09662999957799911,0.13247999548912048,0.0681999996304512,0.14826999604701996,-0.26493000984191895,0.19437000155448914,-0.043209999799728394,-0.1896899938583374,0.26919999718666077],[-0.15686999261379242,-0.10891000181436539,0.36963000893592834,-0.1717900037765503,0.14545999467372894,0.3524399995803833,0.06614000350236893,-0.1602099984884262,-0.27081000804901123,-0.14448000490665436,0.08384999632835388,-0.02582000009715557,-0.13876000046730042,0.43163999915122986,0.03807000070810318,-0.13923999667167664],[0.1518400013446808,0.2326200008392334,-0.4151099920272827,-0.12720000743865967,0.3346000015735626,-0.12977999448776245,0.0386199988424778,-0.014510000124573708,-0.5850600004196167,0.0575300008058548,-0.05302000045776367,-0.22732000052928925,-0.06485000252723694,0.20162999629974365,0.3174700140953064,0.3907800018787384],[0.2929399907588959,-0.1905899941921234,0.5229200124740601,-0.24862000346183777,0.6305099725723267,0.4094400107860565,0.11349000036716461,0.15618999302387238,0.11677999794483185,0.13429999351501465,0.0063299997709691525,0.06210999935865402,-0.27948999404907227,0.07653000205755234,0.3081299960613251,-0.37073999643325806],[0.34084001183509827,0.4018400013446808,0.487309992313385,0.3386499881744385,0.2927199900150299,0.4238300025463104,0.21724000573158264,-0.12104000151157379,0.10984999686479568,0.04811999946832657,-0.07558000087738037,0.07772000133991241,0.24100999534130096,-0.3250199854373932,0.07969000190496445,0.11072000116109848],[0.15404999256134033,-0.47832000255584717,-0.3035399913787842,-0.0376100018620491,0.6822999715805054,-0.10984999686479568,-0.20847000181674957,-0.05536000058054924,-0.31867000460624695,0.23207999765872955,-0.0045900000259280205,-0.27307000756263733,-0.09993000328540802,-0.3387799859046936,-0.05353999882936478,0.15374000370502472],[-0.227400004863739,-0.22206999361515045,0.17076000571250916,0.42219001054763794,0.34904998540878296,-0.48326000571250916,0.10159999877214432,-0.0,-0.03968999907374382,0.24161000549793243,0.4696800112724304,0.2620599865913391,-0.0894400030374527,0.037539999932050705,0.19413000345230103,-0.0814799964427948],[0.3020699918270111,0.010230000130832195,0.06807000190019608,-0.17815999686717987,-0.13056999444961548,0.35791999101638794,-0.4896099865436554,-0.015429999679327011,-0.4562300145626068,0.16272999346256256,-0.7565000057220459,-0.22743000090122223,0.46480000019073486,-0.15154999494552612,0.2919299900531769,0.15905000269412994],[-0.3369799852371216,0.4276899993419647,0.07816000282764435,0.6094300150871277,0.07547999918460846,-0.21744999289512634,0.2670699954032898,0.0,0.4522800147533417,-0.29447999596595764,0.5666000247001648,-0.040789999067783356,0.12366999685764313,-0.03669999912381172,0.15896999835968018,-0.3029800057411194],[-0.06273999810218811,0.0,-0.08092000335454941,-0.0,-0.0,0.14417999982833862,-0.0,0.0,3.9999998989515007e-05,0.0,4.999999873689376e-05,0.0,0.0,0.05990000069141388,-0.0,0.009150000289082527],[0.13627000153064728,-0.2020999938249588,-0.025679999962449074,-0.4380899965763092,-0.027370000258088112,0.2815999984741211,-0.3405900001525879,-0.0,0.19054999947547913,-0.18820999562740326,0.4819599986076355,-0.19686000049114227,-0.3718400001525879,-0.2213200032711029,-0.4050300121307373,-0.2530499994754791],[0.3488900065422058,0.38378000259399414,-0.16304999589920044,0.11528000235557556,0.4084700047969818,0.32117000222206116,-0.2836399972438812,-0.03359000012278557,-0.10478000342845917,0.05869999900460243,0.1984499990940094,-0.22113999724388123,-0.01907999999821186,0.2040500044822693,0.21375000476837158,0.5178300142288208],[0.3684999942779541,-0.013779999688267708,0.021299999207258224,-0.020579999312758446,-0.21963000297546387,0.021619999781250954,0.15479999780654907,-0.0,0.4106599986553192,-0.3111400008201599,0.479779988527298,-0.3519200086593628,-0.24807000160217285,-0.021539999172091484,-0.33390000462532043,0.35262998938560486],[0.36201998591423035,-0.29205000400543213,-0.022019999101758003,-0.08844000101089478,0.026280000805854797,0.37738001346588135,0.26197999715805054,0.0010600000387057662,0.22327999770641327,-0.05017999932169914,0.31292998790740967,0.16769999265670776,0.038440000265836716,0.25852999091148376,-0.24032999575138092,0.36316001415252686],[-0.2392600029706955,-0.14593000710010529,0.007980000227689743,0.29554998874664307,0.5595899820327759,0.25578999519348145,0.041110001504421234,-0.018279999494552612,0.4374299943447113,0.13019999861717224,0.08296000212430954,-0.23728999495506287,0.07996000349521637,0.036660000681877136,-0.0898900032043457,-0.4576599895954132],[0.2605699896812439,-0.17001000046730042,0.2757900059223175,0.27324000000953674,-0.08186999708414078,-0.36871999502182007,0.0560699999332428,0.0,0.06498000025749207,-0.002959999954327941,-0.25209999084472656,-0.03564000129699707,0.2856900095939636,0.4702000021934509,-0.23220999538898468,0.23849999904632568],[-0.7177000045776367,-0.41477999091148376,-0.6392800211906433,-0.22564999759197235,0.22200000286102295,0.2689099907875061,-0.0,0.0,0.26014000177383423,0.036809999495744705,-0.6088600158691406,0.10113000124692917,0.32583001255989075,1.028439998626709,0.8541100025177002,0.2729499936103821],[-0.16912999749183655,0.38517001271247864,0.7360799908638,0.010219999589025974,-0.9243299961090088,0.4871399998664856,0.2608500123023987,-0.022260000929236412,0.6493099927902222,-0.7189800143241882,-0.49483999609947205,0.18257999420166016,0.5052000284194946,-0.37637999653816223,0.32930999994277954,-0.4672200083732605],[-0.38098999857902527,-0.08203999698162079,0.5592700242996216,0.07385999709367752,0.2957800030708313,0.01916000060737133,-0.35798001289367676,-0.03457999974489212,0.1483599990606308,-0.020719999447464943,-0.1468600034713745,-0.15253999829292297,0.1848199963569641,0.47595998644828796,-0.3174299895763397,-0.0737299993634224],[-0.144119992852211,0.43428999185562134,-0.3082199990749359,-0.07050999999046326,0.30636999011039734,0.1039699986577034,-0.042580001056194305,-0.02360999956727028,-0.23938000202178955,0.02450999990105629,-0.3626500070095062,-0.02490999922156334,0.053449999541044235,-0.08416999876499176,0.12872999906539917,0.49031001329421997],[0.31404000520706177,-0.23228999972343445,-0.4261600077152252,0.26517000794410706,-0.1929199993610382,-0.32069000601768494,0.0729300007224083,-0.0,0.11783000081777573,-0.1385599970817566,-0.34161999821662903,0.32453998923301697,-0.1992499977350235,0.08622000366449356,0.12710000574588776,0.2766000032424927],[0.005750000011175871,-0.14461000263690948,0.321289986371994,0.28137001395225525,0.6099399924278259,-0.2835800051689148,-0.26513001322746277,0.1382399946451187,0.04137999936938286,0.27612999081611633,-0.3097899854183197,0.08066999912261963,0.292930006980896,0.10164999961853027,-0.15211999416351318,-0.5422300100326538],[0.20317000150680542,-0.11795999854803085,0.001180000021122396,0.26892000436782837,0.19674000144004822,0.37832000851631165,-0.3031400144100189,-0.0037400000728666782,0.4343700110912323,-0.030579999089241028,-0.25734999775886536,-0.05706999823451042,-0.4061099886894226,0.10876999795436859,0.2649500072002411,-0.05398999899625778]],"biases":[-0.04836000129580498,0.05576999858021736,0.23693999648094177,-0.34286001324653625,0.20315000414848328,0.0761599987745285,0.03378000110387802,-0.2112399935722351,0.1766899973154068,-0.22741000354290009,-0.13324999809265137,0.24111999571323395,0.2807199954986572,-0.34178999066352844,-0.1984499990940094,-0.11733999848365784],"activation":"relu"},{"weights":[[-0.24737000465393066,-0.437610000371933,-0.807200014591217,0.05390999838709831,0.14148999750614166,0.2175299972295761,0.32054999470710754],[-0.5070099830627441,0.26030999422073364,0.32190999388694763,0.2544200122356415,0.18660999834537506,0.6891499757766724,-0.09393999725580215],[-0.4508500099182129,0.16102999448776245,0.2933900058269501,0.4110499918460846,0.08343999832868576,-0.675000011920929,-0.04950999841094017],[0.12645000219345093,0.5638999938964844,0.22372999787330627,-0.5379400253295898,-0.3586600124835968,0.3870899975299835,0.34871000051498413],[0.3660300076007843,-0.09379000216722488,-0.24305999279022217,-0.6022499799728394,0.560949981212616,-0.3077999949455261,-0.3636299967765808],[0.2364799976348877,0.545740008354187,-0.7231400012969971,0.21750999987125397,-0.06711000204086304,-0.12031000107526779,-0.5830299854278564],[-0.2603600025177002,-0.3883099853992462,-0.5644800066947937,0.21184000372886658,0.3927600085735321,-0.4355100095272064,0.22610999643802643],[-0.0,0.0,-0.0,-0.0,-0.0,-0.0,-0.0],[0.20281000435352325,0.544160008430481,0.25710999965667725,0.14775000512599945,-0.47582998871803284,-1.1743099689483643,-0.1901399940252304],[0.08788999915122986,-1.2376899719238281,-0.3242399990558624,0.08105000108480453,0.09329000115394592,0.0342399999499321,0.00674000009894371],[0.015549999661743641,0.4699600040912628,0.47672998905181885,-0.14488999545574188,-0.8726400136947632,-0.5461999773979187,0.6161400079727173],[0.3349199891090393,-0.44475001096725464,-0.061489999294281006,0.01745999976992607,-0.03454999998211861,-0.3564800024032593,0.32330000400543213],[0.08420000225305557,0.06058000028133392,0.49206000566482544,0.4724699854850769,-0.36970001459121704,0.32260000705718994,-0.9820200204849243],[0.2189899981021881,-0.6932799816131592,0.34042999148368835,-0.1200999990105629,-0.6005799770355225,-0.4491899907588959,-0.4549799859523773],[0.39316999912261963,0.2698499858379364,0.31303998827934265,-0.2868399918079376,-0.35190001130104065,-0.5760800242424011,-0.8694000244140625],[0.5363600254058838,-0.6983699798583984,-0.4165000021457672,-0.2574999928474426,-0.6416500210762024,0.17408999800682068,0.2085600048303604]],"biases":[-0.25238001346588135,-0.5370699763298035,-0.2210099995136261,-0.25095999240875244,-0.31643998622894287,0.5392900109291077,0.18384000658988953],"activation":"softmax"}]}